%YAML:1.0
opencv_ml_svm:
   format: 3
   svmType: C_SVC
   kernel:
      type: RBF
      gamma: 1.
   C: 1.
   term_criteria: { epsilon:1.1920928955078125e-07, iterations:1000 }
   var_count: 3
   class_count: 2
   class_labels: !!opencv-matrix
      rows: 2
      cols: 1
      dt: i
      data: [ -1, 1 ]
   sv_total: 195
   support_vectors:
      - [ 1.83272231e+00, -5.91783166e-01, -4.74364430e-01 ]
      - [ 6.14736378e-02, 3.98381293e-01, 6.60638928e-01 ]
      - [ -1.04532398e-01, 3.58492821e-01, 7.71824121e-01 ]
      - [ 7.63480127e-01, 9.52529073e-01, 7.99093723e-01 ]
      - [ -3.08558375e-01, 1.91548288e+00, 1.33373737e+00 ]
      - [ -4.66929734e-01, -1.22564173e+00, 7.04294741e-01 ]
      - [ -8.13267171e-01, 1.38273284e-01, -1.14424384e+00 ]
      - [ 1.81580186e+00, -6.96549416e-01, -3.99209887e-01 ]
      - [ 2.01924324e-01, 6.86957777e-01, 8.72955382e-01 ]
      - [ -2.35136136e-01, -1.37389135e+00, 8.63895595e-01 ]
      - [ -4.43764538e-01, -1.30197215e+00, 7.57980108e-01 ]
      - [ -6.16912603e-01, -1.16434526e+00, 6.06844842e-01 ]
      - [ -8.32751300e-03, 1.02219336e-01, 4.87803608e-01 ]
      - [ 1.36737064e-01, 2.65639901e-01, 6.33230925e-01 ]
      - [ -7.85524726e-01, 6.77987754e-01, 3.58761162e-01 ]
      - [ 5.48392907e-02, 3.25475991e-01, 8.22801292e-01 ]
      - [ 6.25384271e-01, -7.24755824e-01, 1.30636454e+00 ]
      - [ -8.97143781e-01, 2.20320821e+00, 7.22833335e-01 ]
      - [ -2.73167342e-01, 1.54700145e-01, -9.64446068e-01 ]
      - [ -1.16798311e-01, 2.54012704e-01, 7.31319785e-01 ]
      - [ 8.88533533e-01, -8.44906628e-01, 8.40314686e-01 ]
      - [ -7.17658043e-01, 2.20842600e+00, 7.64472723e-01 ]
      - [ -1.16988230e+00, 5.74451029e-01, -1.46350420e+00 ]
      - [ -1.13019204e+00, 6.38376474e-01, -1.48370755e+00 ]
      - [ -6.81074679e-01, -1.15506351e+00, 5.75452447e-01 ]
      - [ -2.19041958e-01, -1.27243102e+00, 7.37186432e-01 ]
      - [ -4.99514490e-01, -1.21277702e+00, 6.91903353e-01 ]
      - [ 7.47354282e-03, 6.67486131e-01, 7.48824775e-01 ]
      - [ -4.30122346e-01, 1.98947537e+00, 1.30492651e+00 ]
      - [ 1.50624007e-01, 6.09350741e-01, 8.84655297e-01 ]
      - [ 4.19070154e-01, 1.86399019e+00, 1.09119010e+00 ]
      - [ 2.78422475e-01, 2.68234968e-01, 6.68942094e-01 ]
      - [ -1.37208629e+00, -6.74098969e-01, 3.52782667e-01 ]
      - [ -6.88049495e-01, -1.14735425e+00, 5.72748959e-01 ]
      - [ -1.45161167e-01, 2.03660989e+00, 1.27393639e+00 ]
      - [ -1.13818407e+00, 4.63882327e-01, -1.82065475e+00 ]
      - [ -7.14289427e-01, -1.11216128e+00, 5.09212017e-01 ]
      - [ 2.34158650e-01, -6.42700434e-01, 9.27969098e-01 ]
      - [ -1.23135157e-01, 3.10670644e-01, 7.81340122e-01 ]
      - [ -7.23341048e-01, 7.05742240e-02, -1.05842900e+00 ]
      - [ -8.76634717e-01, -1.30764525e-02, 3.84049028e-01 ]
      - [ -1.12287426e+00, -1.27675429e-01, -9.35474694e-01 ]
      - [ 7.76222162e-03, -1.37542427e+00, 8.83544564e-01 ]
      - [ 4.91383597e-02, 3.48729581e-01, 8.32607865e-01 ]
      - [ -1.11731339e+00, 3.34271312e-01, -1.56413019e+00 ]
      - [ 2.17454404e-01, 6.60320997e-01, 8.69909823e-01 ]
      - [ 1.48278296e+00, -5.76445639e-01, -3.93289626e-01 ]
      - [ -8.20227861e-01, 1.97606847e-01, -1.32414246e+00 ]
      - [ -3.25929113e-02, -1.37548161e+00, 8.56079638e-01 ]
      - [ -5.18794298e-01, -1.25751317e+00, 7.12529778e-01 ]
      - [ -6.85407221e-01, -1.14781344e+00, 5.71264625e-01 ]
      - [ -7.07648158e-01, 5.56187928e-01, -1.81827617e+00 ]
      - [ -5.30901909e-01, -1.17837310e+00, 6.50452793e-01 ]
      - [ 8.28442156e-01, -6.77914500e-01, 1.08748186e+00 ]
      - [ -8.48642945e-01, 2.01421335e-01, -1.33204520e+00 ]
      - [ -1.47701371e+00, -8.68536308e-02, -1.96353936e+00 ]
      - [ -6.69361725e-02, 1.72456396e+00, 1.20878327e+00 ]
      - [ -1.63990945e-01, 3.33786547e-01, 7.55253434e-01 ]
      - [ 1.66838932e+00, -1.03342927e+00, 6.28151000e-01 ]
      - [ -1.35018837e+00, -6.17561996e-01, 3.59811634e-01 ]
      - [ 5.74085256e-03, 7.06745088e-01, 7.42091537e-01 ]
      - [ -3.71508569e-01, -1.32651126e+00, 7.83818901e-01 ]
      - [ -3.24637264e-01, -1.33264935e+00, 7.96467960e-01 ]
      - [ -4.49368842e-02, 1.76787460e+00, 1.22952390e+00 ]
      - [ -4.58223432e-01, -5.60407043e-01, 7.27405488e-01 ]
      - [ -3.83350365e-02, 3.43370080e-01, 6.18844628e-01 ]
      - [ -8.76226723e-01, -1.11953056e+00, 3.97395849e-01 ]
      - [ 1.56579518e+00, -1.17645073e+00, 1.03663433e+00 ]
      - [ -6.29036069e-01, 2.23124313e+00, 7.61540592e-01 ]
      - [ -5.36156595e-02, 6.00930810e-01, 7.96177566e-01 ]
      - [ 2.22659335e-01, -7.26416945e-01, 9.22692299e-01 ]
      - [ -8.62838924e-01, -7.25990176e-01, 7.30491996e-01 ]
      - [ -7.85524726e-01, 6.77987754e-01, 3.58761162e-01 ]
      - [ -1.42076179e-01, 2.04125905e+00, 1.27664101e+00 ]
      - [ -7.19056427e-01, 2.19080019e+00, 7.59560525e-01 ]
      - [ -7.96247125e-01, 7.65877515e-02, 4.57988024e-01 ]
      - [ -9.33023632e-01, -9.76628885e-02, -2.03319669e+00 ]
      - [ -1.98302895e-01, 1.93436956e+00, 1.17092550e+00 ]
      - [ 7.73823783e-02, 3.77766848e-01, 6.66859388e-01 ]
      - [ 5.48392907e-02, 3.25475991e-01, 8.22801292e-01 ]
      - [ -2.11618543e-02, 3.40672821e-01, 8.17246914e-01 ]
      - [ -2.38205433e+00, -4.49117512e-01, -9.22481358e-01 ]
      - [ -6.88792944e-01, 2.17178106e+00, 6.74767852e-01 ]
      - [ -1.93216085e-01, -1.39132428e+00, 8.86863291e-01 ]
      - [ 1.53024089e+00, -5.76954782e-01, -4.49096113e-01 ]
      - [ 1.74656606e+00, -9.46273267e-01, 4.21925575e-01 ]
      - [ 1.19142450e-01, 5.59938610e-01, 8.75218511e-01 ]
      - [ 1.72595727e+00, -9.66557145e-01, 4.78652030e-01 ]
      - [ -1.04532398e-01, 3.58492821e-01, 7.71824121e-01 ]
      - [ -3.65334570e-01, -1.27484179e+00, 7.68698692e-01 ]
      - [ 1.19142450e-01, 5.59938610e-01, 8.75218511e-01 ]
      - [ 1.50624007e-01, 6.09350741e-01, 8.84655297e-01 ]
      - [ 1.46576524e+00, -6.14978969e-01, -4.64717150e-01 ]
      - [ -7.96247125e-01, 7.65877515e-02, 4.57988024e-01 ]
      - [ -5.54628372e-01, -1.17733562e+00, 6.53031349e-01 ]
      - [ -7.07648158e-01, 5.56187928e-01, -1.81827617e+00 ]
      - [ -5.10132611e-01, -1.19050312e+00, 6.63434684e-01 ]
      - [ -2.45680690e-01, -1.46525681e+00, 8.83015811e-01 ]
      - [ -1.23668192e-02, 6.78448796e-01, 8.15701425e-01 ]
      - [ -3.07023883e-01, -7.42989123e-01, 1.03548384e+00 ]
      - [ 2.17454404e-01, 6.60320997e-01, 8.69909823e-01 ]
      - [ 8.22010219e-01, -7.04069912e-01, 1.09395921e+00 ]
      - [ -6.53542995e-01, 2.20413756e+00, 6.97499692e-01 ]
      - [ -1.63865164e-01, 3.45625073e-01, 7.66850531e-01 ]
      - [ 4.83604282e-01, -6.27364635e-01, 1.00013268e+00 ]
      - [ -5.36156595e-02, 6.00930810e-01, 7.96177566e-01 ]
      - [ -7.27372408e-01, 2.08917427e+00, 6.42786682e-01 ]
      - [ -7.19904363e-01, 2.19262552e+00, 7.60615647e-01 ]
      - [ 2.55232006e-01, -6.53288126e-01, 9.25104916e-01 ]
      - [ -9.77100432e-01, 3.57607871e-01, -1.69557798e+00 ]
      - [ -6.75651252e-01, -1.15026462e+00, 5.81475377e-01 ]
      - [ -5.18794298e-01, -1.25751317e+00, 7.12529778e-01 ]
      - [ 1.03219435e-01, 1.17338888e-01, 8.03151429e-01 ]
      - [ 2.22659335e-01, -7.26416945e-01, 9.22692299e-01 ]
      - [ 4.97819096e-01, -1.49435818e-01, 2.24640146e-01 ]
      - [ -5.42510822e-02, -1.38993168e+00, 9.04910147e-01 ]
      - [ -6.67672455e-01, -1.16267741e+00, 5.85424066e-01 ]
      - [ -6.79567754e-01, -1.15241289e+00, 5.78120351e-01 ]
      - [ 1.71930647e+00, -1.05635417e+00, 6.59235060e-01 ]
      - [ -4.58521247e-02, 1.73543751e+00, 1.21752179e+00 ]
      - [ -6.45070672e-01, -1.12800896e+00, 6.01407468e-01 ]
      - [ 1.12135375e+00, -4.24964309e-01, -1.46414056e-01 ]
      - [ -7.20324397e-01, -1.14270365e+00, 5.68855762e-01 ]
      - [ -1.18140645e-01, 1.96886432e+00, 1.25953531e+00 ]
      - [ -7.07161009e-01, -1.14771914e+00, 5.75982690e-01 ]
      - [ -2.45680690e-01, -1.46525681e+00, 8.83015811e-01 ]
      - [ -3.12690251e-02, -1.37659729e+00, 8.57763171e-01 ]
      - [ 1.42621112e+00, -6.81644976e-01, -6.72880709e-01 ]
      - [ -9.20234501e-01, 2.05667806e+00, 6.60701394e-01 ]
      - [ -6.98330581e-01, -1.14222229e+00, 5.68300426e-01 ]
      - [ 6.14736378e-02, 3.98381293e-01, 6.60638928e-01 ]
      - [ 2.22313523e-01, 2.91471660e-01, 6.85000479e-01 ]
      - [ -2.48901516e-01, 2.07778327e-02, 6.80620313e-01 ]
      - [ -3.90220016e-01, 1.11083257e+00, -1.94994223e+00 ]
      - [ 5.74085256e-03, 7.06745088e-01, 7.42091537e-01 ]
      - [ -7.37447023e-01, 2.24986887e+00, 8.06096435e-01 ]
      - [ -6.77248478e-01, 2.22091532e+00, 7.06449568e-01 ]
      - [ -1.66244841e+00, -1.86605811e-01, -1.70961547e+00 ]
      - [ -6.95256472e-01, -1.14095747e+00, 5.78211784e-01 ]
      - [ -5.97442806e-01, -1.17606080e+00, 6.36583924e-01 ]
      - [ -8.87317359e-01, 2.65495867e-01, -1.58430135e+00 ]
      - [ 6.25384271e-01, -7.24755824e-01, 1.30636454e+00 ]
      - [ -6.45070672e-01, -1.12800896e+00, 6.01407468e-01 ]
      - [ -7.32566059e-01, 6.73575222e-01, 3.60369354e-01 ]
      - [ -7.69627988e-02, 2.11221242e+00, 1.40641654e+00 ]
      - [ -6.83666527e-01, -1.14728248e+00, 5.75533807e-01 ]
      - [ -9.02316988e-01, 2.15017271e+00, 7.05617964e-01 ]
      - [ 1.42762339e+00, -5.14359117e-01, -6.60249829e-01 ]
      - [ -9.77102757e-01, -5.42860627e-01, 5.28467119e-01 ]
      - [ 7.47354282e-03, 6.67486131e-01, 7.48824775e-01 ]
      - [ -2.15560287e-01, 3.36526304e-01, 7.45011091e-01 ]
      - [ -1.41737342e-01, 3.45893323e-01, 7.32335508e-01 ]
      - [ 3.20759714e-01, -5.67252994e-01, 3.15941453e-01 ]
      - [ 1.90499961e-01, 3.36894333e-01, 6.65020108e-01 ]
      - [ -2.64718626e-02, -1.37861764e+00, 8.58946800e-01 ]
      - [ 1.30621165e-01, 3.72523129e-01, 6.74725294e-01 ]
      - [ 1.35889697e+00, -4.87272263e-01, -7.34888792e-01 ]
      - [ -9.97111976e-01, -7.16212094e-01, 6.37304187e-01 ]
      - [ -9.01021063e-01, 2.35278025e-01, -1.56373501e+00 ]
      - [ -6.44253314e-01, 6.11905456e-01, -1.88365901e+00 ]
      - [ 2.39821240e-01, 3.16653848e-01, 6.89551651e-01 ]
      - [ 1.28809595e+00, -9.24291730e-01, -6.10360980e-01 ]
      - [ -6.44253314e-01, 6.11905456e-01, -1.88365901e+00 ]
      - [ -7.94118047e-01, 8.48154351e-02, -1.04341161e+00 ]
      - [ -7.34408975e-01, -1.11852992e+00, 4.90907580e-01 ]
      - [ 1.12135375e+00, -4.24964309e-01, -1.46414056e-01 ]
      - [ 1.95487872e-01, 3.01870018e-01, 6.57164037e-01 ]
      - [ 5.75780034e-01, -7.64796615e-01, 1.42611635e+00 ]
      - [ -6.97644770e-01, -1.13953793e+00, 5.65283716e-01 ]
      - [ -9.18945670e-01, -7.94734359e-02, -2.05888915e+00 ]
      - [ -9.95354474e-01, 1.84703684e+00, 5.79596758e-01 ]
      - [ -1.25380564e+00, 4.50348914e-01, 1.17154308e-01 ]
      - [ -1.76385224e-01, -1.27490938e+00, 7.48756826e-01 ]
      - [ 9.92401600e-01, -7.32416689e-01, 2.79764175e-01 ]
      - [ -6.87766552e-01, -1.13773513e+00, 5.71151733e-01 ]
      - [ -1.23135157e-01, 3.10670644e-01, 7.81340122e-01 ]
      - [ -7.79474735e-01, 7.88259804e-02, 4.55952555e-01 ]
      - [ -4.26787764e-01, 2.17564836e-01, 6.48447990e-01 ]
      - [ -6.02479517e-01, -1.17513978e+00, 6.39752269e-01 ]
      - [ -5.29815078e-01, -1.18709767e+00, 6.54528856e-01 ]
      - [ 3.94587398e-01, -8.04163575e-01, 1.61455500e+00 ]
      - [ -4.66000676e-01, -1.23655331e+00, 7.05125451e-01 ]
      - [ -1.04777265e+00, -9.94793251e-02, -1.02807915e+00 ]
      - [ 1.69926775e+00, -1.10235322e+00, 7.80569971e-01 ]
      - [ -4.14444119e-01, -1.25146830e+00, 7.45564640e-01 ]
      - [ -4.17971700e-01, -1.30238485e+00, 7.51193643e-01 ]
      - [ -6.43944740e-01, 2.21695733e+00, 7.90952623e-01 ]
      - [ -1.41737342e-01, 3.45893323e-01, 7.32335508e-01 ]
      - [ -6.50666296e-01, -1.22699511e+00, 6.34512484e-01 ]
      - [ 1.42762339e+00, -5.14359117e-01, -6.60249829e-01 ]
      - [ 2.31804714e-01, 2.50963658e-01, 9.23377872e-01 ]
      - [ -7.70786524e-01, 7.96697289e-02, 4.53597784e-01 ]
      - [ -1.63865164e-01, 3.45625073e-01, 7.66850531e-01 ]
      - [ -9.71179828e-02, 3.22926491e-01, 7.88288891e-01 ]
      - [ -3.71892363e-01, -1.27391219e+00, 7.64683127e-01 ]
   decision_functions:
      -
         sv_count: 195
         rho: 7.9768815266855375e-01
         alpha: [ 1., 1., 1., 1., 3.8383371910420255e-01, 1., 1., 1., 1.,
             1., 1., 1., 1., 3.3535868522758805e-01, 1., 1., 1., 1., 1.,
             1., 1., 1., 1., 1., 1., 1., 9.8226836377882432e-01, 1., 1.,
             1., 1., 1., 1., 1., 1., 1., 1., 1., 1., 1., 1., 1., 1., 1.,
             1., 1., 1., 1., 1., 1., 1., 1., 1., 1., 1., 1., 1.,
             7.4792491750800605e-01, 1., 1., 1., 1.8820544289322441e-01,
             1., 1., 9.1273058700377774e-01, 6.9470221116446551e-01,
             9.6155174107914110e-01, 1., 1., 1., 1., 1., 1., 1., 1., 1.,
             1., 1., 2.6373238934885102e-01, 1., 1.7820838432936223e-01,
             1., 1., 1., -2.2369181367151145e-02, -1.,
             -1.7489093556276381e-01, -1., -1., -1., -1.,
             -5.0655292649628447e-01, -1., -9.2885649789076796e-01, -1.,
             -1., -8.2767383303441300e-02, -1., -1.,
             -1.6932316692440830e-01, -3.0425104009080778e-01,
             -1.3438454715292009e-01, -1., -7.7523816754049013e-01, -1.,
             -6.0502634151330958e-01, -6.1408811301811639e-01, -1., -1.,
             -1., -6.6227468019755908e-01, -1., -1., -1., -1., -1., -1.,
             -5.2426558532763612e-01, -1., -1.9953864928898046e-01,
             -3.3473266898182114e-01, -9.8840457782659807e-01, -1., -1.,
             -1., -3.4760037399172294e-01, -7.7679237640667351e-02,
             -1.0725727219405067e-01, -2.8534610809711519e-01,
             -4.9643553812850949e-01, -9.7579909689979150e-02,
             -9.4584129876363499e-02, -7.8516936436059490e-02,
             -9.2147525904560013e-01, -8.2838022788189347e-01,
             -2.3128723951258839e-01, -1., -1., -1.,
             -2.8342943076258542e-01, -4.1127902853726389e-02, -1., -1.,
             -5.2808378966087666e-01, -2.3383313558254043e-02,
             -1.1453273273394690e-01, -1., -8.0479021725803179e-02, -1.,
             -3.6152102409327994e-02, -7.3553426567328817e-01, -1., -1.,
             -1., -1.3149214125077441e-01, -8.1504021251498937e-01, -1.,
             -9.4350536486298334e-02, -1., -4.9495946936947081e-02, -1.,
             -1., -6.9833715253795434e-02, -1., -1., -1.,
             -4.6476031319006883e-01, -1., -1., -1., -1.,
             -4.3521070582531365e-02, -1., -2.8055013117429911e-01, -1.,
             -1., -1., -1., -1., -1., -6.3142202421277838e-01,
             -6.2828254588295840e-01, -1., -1., -1., -1., -1., -1.,
             -1.6191191544412062e-01, -1., -4.6408879677998352e-02,
             -7.9561775447446870e-01, -1., -1., -1. ]
         index: [ 84, 166, 83, 46, 164, 168, 42, 122, 43, 50, 126, 51,
             79, 48, 125, 80, 37, 87, 174, 176, 36, 119, 170, 120, 40,
             63, 65, 66, 145, 67, 70, 135, 75, 136, 138, 139, 68, 56,
             160, 54, 159, 129, 153, 58, 154, 77, 151, 150, 78, 57, 155,
             187, 93, 111, 191, 192, 106, 193, 15, 92, 108, 9, 110, 189,
             188, 97, 10, 6, 190, 2, 104, 115, 1, 103, 88, 178, 33, 117,
             31, 3, 24, 21, 113, 114, 137, 107, 133, 134, 105, 124, 112,
             123, 116, 118, 121, 130, 109, 132, 131, 128, 127, 182, 181,
             183, 184, 180, 186, 185, 175, 172, 173, 179, 177, 194, 149,
             152, 148, 156, 157, 140, 146, 147, 141, 142, 143, 144, 167,
             163, 165, 171, 169, 158, 161, 162, 39, 41, 34, 32, 29, 30,
             35, 38, 52, 53, 55, 44, 45, 47, 49, 8, 7, 13, 11, 12, 4, 0,
             5, 23, 20, 22, 26, 27, 28, 25, 14, 19, 18, 16, 17, 89, 90,
             81, 82, 85, 86, 99, 98, 100, 95, 96, 101, 102, 91, 94, 64,
             62, 61, 69, 60, 59, 76, 72, 73, 74, 71 ]
...
---
mean: !!opencv-matrix
   rows: 1
   cols: 3
   dt: f
   data: [ 1.47834839e+02, 1.35689651e+02, 1.37414078e+02 ]
std: !!opencv-matrix
   rows: 1
   cols: 3
   dt: f
   data: [ 5.50750542e+01, 1.28355684e+01, 1.85593281e+01 ]
