%YAML:1.0
opencv_ml_svm:
   format: 3
   svmType: C_SVC
   kernel:
      type: RBF
      gamma: 1.
   C: 1.
   term_criteria: { epsilon:1.1920928955078125e-07, iterations:1000 }
   var_count: 3
   class_count: 2
   class_labels: !!opencv-matrix
      rows: 2
      cols: 1
      dt: i
      data: [ -1, 1 ]
   sv_total: 165
   support_vectors:
      - [ -3.04556400e-01, -1.57876790e-01, -2.01302695e+00 ]
      - [ 1.70205939e+00, -5.24502575e-01, 1.99017152e-01 ]
      - [ 1.31787288e+00, -5.50155878e-01, -2.29221508e-01 ]
      - [ 9.24090087e-01, -6.43593490e-01, -1.35383546e-01 ]
      - [ -1.48117447e+00, 5.92747509e-01, -1.95374894e+00 ]
      - [ -1.62656248e+00, 8.11663926e-01, 1.58365265e-01 ]
      - [ 6.27246276e-02, -5.84579468e-01, -6.81101978e-01 ]
      - [ 1.50049090e+00, -4.22725439e-01, -2.79985368e-01 ]
      - [ -1.66898799e+00, -1.33244336e+00, 3.55579227e-01 ]
      - [ -4.65991646e-01, -1.50935006e+00, 8.40559721e-01 ]
      - [ -4.11919266e-01, 7.26561129e-01, -1.36793709e+00 ]
      - [ 1.29795444e+00, -4.18595076e-01, -1.07110238e+00 ]
      - [ 2.65433431e-01, -6.28399491e-01, 2.70544499e-01 ]
      - [ 1.19921052e+00, -5.96302867e-01, -1.63615853e-01 ]
      - [ 1.23814380e+00, -4.64569837e-01, -1.13916051e+00 ]
      - [ 1.15757383e-01, -8.49936128e-01, 4.22674902e-02 ]
      - [ 1.28890550e+00, -5.50880432e-01, -1.21647358e-01 ]
      - [ -1.12931117e-01, 5.08782804e-01, 5.80632269e-01 ]
      - [ 7.24090263e-02, -6.16145849e-01, 2.74823308e-01 ]
      - [ 1.26896828e-01, -9.04709101e-01, 1.05226398e-01 ]
      - [ 1.19921052e+00, -5.96302867e-01, -1.63615853e-01 ]
      - [ 1.56025195e+00, -5.09126246e-01, -7.03276992e-02 ]
      - [ -1.43614864e+00, -1.43325090e+00, 5.20816565e-01 ]
      - [ 9.39675748e-01, -5.25539458e-01, 2.19878748e-01 ]
      - [ 1.54959238e+00, -5.00367343e-01, -6.26312718e-02 ]
      - [ -2.04819846e+00, -1.04207969e+00, 1.44629702e-01 ]
      - [ 1.54959238e+00, -5.00367343e-01, -6.26312718e-02 ]
      - [ -1.01155031e+00, -4.65571910e-01, -2.29598507e-01 ]
      - [ 1.08868289e+00, -5.01549363e-01, 1.56153664e-01 ]
      - [ 8.39539409e-01, -5.13828337e-01, 2.12304592e-01 ]
      - [ 1.01881027e+00, -5.05145729e-01, 2.11688295e-01 ]
      - [ 1.52678895e+00, -5.13764024e-01, -5.32539859e-02 ]
      - [ -4.07824874e-01, -2.41718650e+00, 1.53094196e+00 ]
      - [ 1.15960658e-01, -8.55635881e-01, 6.92330599e-02 ]
      - [ 1.61278760e+00, -5.52732229e-01, 2.30595946e-01 ]
      - [ 1.39786422e+00, -5.41045129e-01, -2.52524167e-01 ]
      - [ 1.61278760e+00, -5.52732229e-01, 2.30595946e-01 ]
      - [ -2.16130078e-01, 2.22016859e+00, -2.71132350e+00 ]
      - [ -5.95582068e-01, -1.01145935e+00, 1.51666492e-01 ]
      - [ 1.31839907e+00, -5.18265486e-01, -1.64383084e-01 ]
      - [ 2.78187301e-02, 3.90747309e-01, 1.10342991e+00 ]
      - [ 1.54298770e+00, -5.14618754e-01, -5.76365516e-02 ]
      - [ 1.15960658e-01, -8.55635881e-01, 6.92330599e-02 ]
      - [ 1.53094995e+00, -5.08510411e-01, -6.00668751e-02 ]
      - [ -3.17490816e-01, -4.16415811e-01, -9.54812586e-01 ]
      - [ 1.12939797e-01, -8.80953491e-01, 8.15695599e-02 ]
      - [ 1.50137269e+00, -5.02550960e-01, -5.11476696e-02 ]
      - [ -1.16470866e-01, -6.20499611e-01, 2.53572464e-01 ]
      - [ 8.19952488e-01, -7.17020571e-01, -3.69687155e-02 ]
      - [ 1.37645853e+00, -5.99153876e-01, -2.20519096e-01 ]
      - [ 1.75955749e+00, -5.37775397e-01, 2.58894384e-01 ]
      - [ 9.32457924e-01, -5.00004709e-01, 2.21277401e-01 ]
      - [ 1.31223214e+00, -5.21359980e-01, -1.86672345e-01 ]
      - [ 1.62384391e+00, -5.30880213e-01, 2.52078563e-01 ]
      - [ 3.62875611e-02, 1.09819710e+00, 1.01387429e+00 ]
      - [ 6.80309951e-01, -5.66441000e-01, 2.43764490e-01 ]
      - [ 1.23243213e+00, -6.22306526e-01, -2.36399636e-01 ]
      - [ 1.38921011e-02, 1.44048810e+00, 1.78833008e+00 ]
      - [ 1.55887341e+00, -5.15730023e-01, -6.83154911e-02 ]
      - [ 1.32667363e+00, -6.56623483e-01, -2.82648116e-01 ]
      - [ 1.04064071e+00, -6.52940571e-01, -7.30166137e-02 ]
      - [ 1.52581501e+00, -5.26818693e-01, -4.70788851e-02 ]
      - [ -6.18105829e-01, -9.30372894e-01, 7.80210039e-03 ]
      - [ -5.95582068e-01, -1.01145935e+00, 1.51666492e-01 ]
      - [ 2.77124643e-01, 1.53472793e+00, 1.98175371e+00 ]
      - [ 1.49444461e+00, -5.33634007e-01, -6.29983917e-02 ]
      - [ 3.85543644e-01, -6.19386792e-01, 2.46429399e-01 ]
      - [ 7.96248734e-01, -7.00279057e-01, -5.39183989e-02 ]
      - [ -1.02513111e+00, 1.64331865e+00, -2.18461823e+00 ]
      - [ 1.54169190e+00, -5.19153953e-01, -5.83441667e-02 ]
      - [ 1.12530446e+00, -6.47527635e-01, -1.42041102e-01 ]
      - [ 1.22727978e+00, -5.73493123e-01, -2.25390598e-01 ]
      - [ -2.13843867e-01, 7.26476684e-03, 6.78385735e-01 ]
      - [ 1.17269194e+00, -5.63067734e-01, -2.05378443e-01 ]
      - [ 1.33940756e+00, -6.24767542e-01, -2.25655138e-01 ]
      - [ 1.66420603e+00, -6.18542492e-01, 5.14517426e-01 ]
      - [ 1.34246600e+00, -4.97242749e-01, -1.96232215e-01 ]
      - [ 8.19952488e-01, -7.17020571e-01, -3.69687155e-02 ]
      - [ -6.20268285e-01, -9.93041456e-01, 3.25123221e-02 ]
      - [ 1.17564940e+00, -5.84124565e-01, -9.38635245e-02 ]
      - [ 1.57227850e+00, -5.13098598e-01, -7.64441416e-02 ]
      - [ 1.01341689e+00, -5.25488794e-01, 1.85982943e-01 ]
      - [ 1.54169190e+00, -5.19153953e-01, -5.83441667e-02 ]
      - [ -5.78601100e-02, 3.19059521e-01, 1.10753930e+00 ]
      - [ -3.13082844e-01, -6.84619069e-01, 1.75113797e-01 ]
      - [ 1.52581501e+00, -5.26818693e-01, -4.70788851e-02 ]
      - [ 1.32245171e+00, -5.81141233e-01, -2.26789117e-01 ]
      - [ 1.36665046e-01, -6.01055741e-01, 2.62686789e-01 ]
      - [ 8.69367898e-01, -1.49285352e+00, 1.68105578e+00 ]
      - [ 1.04776633e+00, -6.31579876e-01, -1.31746888e-01 ]
      - [ -8.36085826e-02, 2.17164063e+00, -2.68811750e+00 ]
      - [ 1.54298770e+00, -5.14618754e-01, -5.76365516e-02 ]
      - [ 1.25783002e+00, -6.00872099e-01, -2.91281253e-01 ]
      - [ 1.26896828e-01, -9.04709101e-01, 1.05226398e-01 ]
      - [ -2.13843867e-01, 7.26476684e-03, 6.78385735e-01 ]
      - [ 7.96248734e-01, -7.00279057e-01, -5.39183989e-02 ]
      - [ 1.19921052e+00, -5.96302867e-01, -1.63615853e-01 ]
      - [ 1.09575176e+00, -6.17183328e-01, -9.42402408e-02 ]
      - [ -1.15482950e+00, 1.87603271e+00, 4.43776786e-01 ]
      - [ 1.59417927e+00, -5.18225253e-01, 2.47482777e-01 ]
      - [ 1.21803737e+00, -6.16869867e-01, -2.04751015e-01 ]
      - [ 1.15960658e-01, -8.55635881e-01, 6.92330599e-02 ]
      - [ 1.49731982e+00, -5.22382021e-01, -6.45673349e-02 ]
      - [ 1.55887341e+00, -5.15730023e-01, -6.83154911e-02 ]
      - [ 3.97152960e-01, -6.16980255e-01, 1.48884133e-01 ]
      - [ 8.13204348e-01, -7.04392612e-01, -4.75249365e-02 ]
      - [ 1.56025195e+00, -5.09126246e-01, -7.03276992e-02 ]
      - [ 1.28890550e+00, -5.50880432e-01, -1.21647358e-01 ]
      - [ -1.15128703e-01, 2.85715604e+00, 1.94256580e+00 ]
      - [ 1.33684766e+00, -7.23219395e-01, -2.21827924e-01 ]
      - [ 6.57422245e-02, 3.98894936e-01, 1.08717692e+00 ]
      - [ 4.33117539e-01, -1.11979745e-01, -1.71406269e+00 ]
      - [ 1.14316165e+00, -6.12143993e-01, -2.68722206e-01 ]
      - [ -5.51043928e-01, -1.58264208e+00, 8.14951599e-01 ]
      - [ 1.21261537e+00, -5.59165537e-01, -2.14198932e-01 ]
      - [ 1.49444461e+00, -5.33634007e-01, -6.29983917e-02 ]
      - [ 2.05147028e-01, -3.12146592e+00, 2.15746212e+00 ]
      - [ 2.15181991e-01, -6.24316335e-01, 2.08527327e-01 ]
      - [ -2.05195284e+00, -5.59329689e-01, 4.33724113e-02 ]
      - [ 1.04064071e+00, -6.52940571e-01, -7.30166137e-02 ]
      - [ 1.04064071e+00, -6.52940571e-01, -7.30166137e-02 ]
      - [ 1.33352029e+00, -6.04043782e-01, -2.23668709e-01 ]
      - [ 1.57227850e+00, -5.13098598e-01, -7.64441416e-02 ]
      - [ 1.31915545e+00, -5.60180545e-01, -1.87350944e-01 ]
      - [ 1.12939797e-01, -8.80953491e-01, 8.15695599e-02 ]
      - [ 1.12939797e-01, -8.80953491e-01, 8.15695599e-02 ]
      - [ 1.27676761e+00, -6.30185902e-01, -2.70933539e-01 ]
      - [ 1.50137269e+00, -5.02550960e-01, -5.11476696e-02 ]
      - [ -7.80661047e-01, 2.93872714e+00, 6.37000442e-01 ]
      - [ 1.12530446e+00, -6.47527635e-01, -1.42041102e-01 ]
      - [ 1.34424877e+00, -4.91913736e-01, -2.07243413e-01 ]
      - [ 3.38608086e-01, -6.12504601e-01, 2.53519118e-01 ]
      - [ 1.54677665e+00, -5.13034940e-01, 4.02532876e-01 ]
      - [ 1.09575176e+00, -6.17183328e-01, -9.42402408e-02 ]
      - [ 1.49661422e+00, -5.19699514e-01, -4.55542691e-02 ]
      - [ -3.40924919e-01, -2.52638602e+00, 1.64408350e+00 ]
      - [ 1.26918077e+00, -4.92644846e-01, -1.88971758e-01 ]
      - [ -6.20268285e-01, -9.93041456e-01, 3.25123221e-02 ]
      - [ 1.35473418e+00, -5.85656583e-01, -2.15191901e-01 ]
      - [ 1.39219284e+00, -7.21986055e-01, -2.31862634e-01 ]
      - [ 9.24090087e-01, -6.43593490e-01, -1.35383546e-01 ]
      - [ 2.23706424e-01, -6.39121234e-01, 2.74955004e-01 ]
      - [ 1.62384391e+00, -5.30880213e-01, 2.52078563e-01 ]
      - [ 3.56483161e-02, -6.49706066e-01, 2.80014664e-01 ]
      - [ -4.09541070e-01, 1.37830329e+00, -1.83303344e+00 ]
      - [ 1.32292318e+00, -6.09835029e-01, -1.85353428e-01 ]
      - [ 1.06256813e-01, -2.85088611e+00, 2.12916231e+00 ]
      - [ -1.12931117e-01, 5.08782804e-01, 5.80632269e-01 ]
      - [ -2.49327291e-02, 2.75087565e-01, 7.84751296e-01 ]
      - [ 1.36856449e+00, -5.99136114e-01, -2.27268636e-01 ]
      - [ 1.29580390e+00, -5.12881160e-01, -1.91619396e-01 ]
      - [ 8.19952488e-01, -7.17020571e-01, -3.69687155e-02 ]
      - [ 1.29795444e+00, -4.18595076e-01, -1.07110238e+00 ]
      - [ -1.45326030e+00, -1.50040448e-01, -1.05828190e+00 ]
      - [ 1.26896828e-01, -9.04709101e-01, 1.05226398e-01 ]
      - [ 1.59417927e+00, -5.18225253e-01, 2.47482777e-01 ]
      - [ 1.28890550e+00, -5.50880432e-01, -1.21647358e-01 ]
      - [ 1.21242940e+00, -5.79443038e-01, -2.14753509e-01 ]
      - [ 1.49731982e+00, -5.22382021e-01, -6.45673349e-02 ]
      - [ 5.27050376e-01, -5.97943664e-01, 2.41727650e-01 ]
      - [ -1.08423102e+00, 1.96267509e+00, 6.85504735e-01 ]
      - [ 1.04776633e+00, -6.31579876e-01, -1.31746888e-01 ]
      - [ 1.49661422e+00, -5.19699514e-01, -4.55542691e-02 ]
      - [ 1.53094995e+00, -5.08510411e-01, -6.00668751e-02 ]
      - [ 1.28485477e+00, -5.60424089e-01, -2.19407186e-01 ]
   decision_functions:
      -
         sv_count: 165
         rho: 2.9467413915906915e-01
         alpha: [ 1., 1., 1., 1., 1., 1., 1., 8.1410144908968962e-01, 1.,
             1., 1., 1., 1., 1., 1., 1., 1., 1., 6.6819452774417309e-01,
             1., 1., 1., 1., 1., 8.6287265070531631e-03,
             3.3524510708550742e-01, 1., 1., 1., 2.8112801782578523e-03,
             1., 1., 1., 1., 1., 1., 1., 1., 1., 1., 1., 1., 1.,
             5.4934485372291453e-01, 1., 1., 1., 1., 1., 1., 1., 1., 1.,
             1., 1., 9.4523239626256217e-01, 1., 1.,
             1.7328328146317960e-03, 1., 1., 1., 1., 1., 1.,
             6.3058393687299152e-01, 6.2162388723113249e-01, 1., 1., 1.,
             7.6361766329210534e-01, 1.6395565809805099e-01,
             8.8050518931237698e-01, 1., 1.7785369512588728e-01, 1., 1.,
             1., 1., -1., -9.0154057882241656e-01, -1.,
             -2.5058578402470250e-01, -1., -1., -1.,
             -9.3424560781353111e-02, -5.5591718000068591e-01, -1., -1.,
             -1., -1., -1., -8.0127763215222497e-02,
             -5.3910277148032593e-01, -1., -1., -1., -1., -1., -1., -1.,
             -8.5753253576025912e-01, -5.2776147938775242e-01, -1., -1.,
             -1., -1., -1., -2.4343380233715231e-01, -1.,
             -6.3172376087875837e-01, -1., -2.2928718469464440e-01, -1.,
             -1., -2.0179166627338507e-01, -9.8544916634607116e-01, -1.,
             -1., -1., -3.8340474108333419e-03, -2.8006415595036599e-01,
             -1., -1., -1., -1., -3.4298050597686230e-01, -1., -1.,
             -4.9998134700427171e-01, -1., -3.1729945417340720e-02, -1.,
             -1., -9.6448110506395224e-01, -1., -1., -1., -1., -1., -1.,
             -1., -4.9591270650397989e-01, -1., -6.4174885746432139e-02,
             -1., -1., -1., -1., -1., -1., -5.3407002351137345e-01,
             -2.2592530801021876e-01, -1., -1., -1., -1., -1., -1., -1.,
             -1., -2.2598938738973989e-02, -1., -1. ]
         index: [ 81, 83, 84, 78, 92, 86, 87, 88, 59, 55, 52, 53, 56, 62,
             47, 49, 50, 51, 75, 76, 66, 74, 71, 73, 146, 148, 142, 143,
             145, 135, 136, 132, 137, 139, 141, 138, 159, 164, 149, 150,
             155, 157, 112, 113, 116, 117, 114, 100, 99, 109, 110, 104,
             131, 130, 121, 118, 126, 123, 8, 7, 34, 35, 6, 30, 29, 32,
             9, 39, 36, 23, 18, 22, 27, 28, 25, 12, 40, 1, 2, 120, 122,
             162, 0, 119, 161, 127, 10, 128, 11, 124, 125, 106, 105, 111,
             108, 107, 101, 102, 103, 21, 16, 13, 15, 14, 115, 19, 20,
             17, 163, 4, 156, 5, 147, 144, 154, 151, 152, 153, 3, 133,
             129, 160, 140, 158, 134, 72, 67, 68, 69, 38, 70, 77, 37, 41,
             54, 44, 45, 43, 48, 46, 42, 63, 65, 64, 58, 57, 61, 60, 91,
             93, 94, 89, 90, 98, 95, 96, 97, 79, 31, 33, 85, 24, 80, 82,
             26 ]
...
---
mean: !!opencv-matrix
   rows: 1
   cols: 3
   dt: f
   data: [ 1.58072479e+02, 1.32831665e+02, 1.37066406e+02 ]
std: !!opencv-matrix
   rows: 1
   cols: 3
   dt: f
   data: [ 5.05581093e+01, 1.43244076e+01, 2.21970501e+01 ]
