%YAML:1.0
opencv_ml_svm:
   format: 3
   svmType: C_SVC
   kernel:
      type: RBF
      gamma: 1.
   C: 1.
   term_criteria: { epsilon:1.1920928955078125e-07, iterations:1000 }
   var_count: 3
   class_count: 2
   class_labels: !!opencv-matrix
      rows: 2
      cols: 1
      dt: i
      data: [ -1, 1 ]
   sv_total: 108
   support_vectors:
      - [ 6.31818920e-02, 1.44935358e+00, -2.11129069e+00 ]
      - [ -7.65440241e-02, 1.06941926e+00, 7.49709666e-01 ]
      - [ 1.96513104e+00, -7.45326519e-01, 1.42155278e+00 ]
      - [ -1.07354112e-01, 8.48289967e-01, 3.41442704e-01 ]
      - [ 1.99101076e-01, -4.89661783e-01, -2.42810994e-01 ]
      - [ -3.38659614e-01, -8.32718372e-01, -3.00597042e-01 ]
      - [ -6.55637011e-02, 1.09142649e+00, 7.52744079e-01 ]
      - [ 1.66099727e+00, -3.06354940e-01, -1.37381518e+00 ]
      - [ 1.13426554e+00, -1.83073187e-03, 6.27531469e-01 ]
      - [ 3.63885611e-01, 1.05371952e+00, 6.76333547e-01 ]
      - [ -9.28415880e-02, 8.82631540e-01, 3.37192208e-01 ]
      - [ 3.88579369e-01, -5.78948259e-01, -7.67950118e-01 ]
      - [ -6.39185369e-01, -4.14276421e-01, -3.89459491e-01 ]
      - [ -1.64920494e-01, 1.13610792e+00, 6.09111667e-01 ]
      - [ 2.46342111e+00, -2.97890455e-01, -5.70273757e-01 ]
      - [ -2.07106322e-01, 1.15096426e+00, 6.59829140e-01 ]
      - [ 4.68714952e-01, 6.86628520e-01, 8.71828377e-01 ]
      - [ -1.14514887e+00, 8.54102671e-01, 1.15771860e-01 ]
      - [ -3.54088135e-02, -4.99884300e-02, -2.04718757e+00 ]
      - [ -2.72513628e-01, 1.01565266e+00, 4.08593267e-02 ]
      - [ -1.08820295e+00, 7.21768260e-01, 8.10781121e-03 ]
      - [ 4.98275310e-01, -5.29932439e-01, -6.98863089e-01 ]
      - [ -6.55637011e-02, 1.09142649e+00, 7.52744079e-01 ]
      - [ -3.32738638e-01, 9.14168835e-01, 4.55519080e-01 ]
      - [ -8.79553080e-01, 1.53271604e+00, -2.20158076e+00 ]
      - [ 5.14389634e-01, -1.61116287e-01, 1.30254522e-01 ]
      - [ 2.10884833e+00, -3.74176443e-01, -2.78282493e-01 ]
      - [ -1.08041406e+00, 6.46288812e-01, 6.43004104e-02 ]
      - [ -1.13207769e+00, 7.89012074e-01, 1.39177680e-01 ]
      - [ 5.05307317e-01, 7.73755133e-01, 8.06119978e-01 ]
      - [ 1.92918539e+00, -5.73136032e-01, -4.36976224e-01 ]
      - [ -2.22658455e-01, -2.27695799e+00, 1.18846393e+00 ]
      - [ 8.28767002e-01, -9.65884794e-03, -1.77818799e+00 ]
      - [ 4.19005215e-01, 1.12040627e+00, 6.93578482e-01 ]
      - [ -1.28649801e-01, 8.78316104e-01, 3.87624413e-01 ]
      - [ -2.44907945e-01, 8.80561590e-01, 4.36459363e-01 ]
      - [ 1.10657859e+00, 3.33339572e-01, 6.66444778e-01 ]
      - [ -2.07106322e-01, 1.15096426e+00, 6.59829140e-01 ]
      - [ 7.08171949e-02, 9.30259109e-01, 7.27197170e-01 ]
      - [ 9.47634429e-02, -1.80437398e+00, 7.38020360e-01 ]
      - [ 1.89077809e-01, 5.35803139e-01, 2.86514461e-01 ]
      - [ 1.52092323e-01, 8.89407754e-01, 2.17144087e-01 ]
      - [ 4.66953695e-01, -2.21193504e+00, 1.74902415e+00 ]
      - [ 3.29011470e-01, -9.49750781e-01, 1.61624837e+00 ]
      - [ -2.18017623e-01, 8.77722502e-01, 4.48238611e-01 ]
      - [ -8.18900168e-02, 8.68374169e-01, 3.51546109e-01 ]
      - [ -2.18627810e+00, -2.63580173e-01, -3.52669090e-01 ]
      - [ -7.62589499e-02, 8.98036063e-01, 3.60595405e-01 ]
      - [ 5.28241277e-01, -5.67831933e-01, -6.84100807e-01 ]
      - [ 4.05603349e-02, 9.35591638e-01, 7.40887344e-01 ]
      - [ 2.41422629e+00, -1.97785988e-01, -6.55161321e-01 ]
      - [ -6.70308948e-01, 1.17701888e+00, -1.02315746e-01 ]
      - [ -8.37472007e-02, 6.87234759e-01, 9.95448947e-01 ]
      - [ 1.05746157e-01, 1.19300342e+00, 6.32591322e-02 ]
      - [ -1.26174915e+00, 9.35746491e-01, -1.62440941e-01 ]
      - [ 1.76430285e+00, -1.95149565e+00, 1.30119526e+00 ]
      - [ 7.08597824e-02, 9.51209143e-02, 3.74470264e-01 ]
      - [ 5.65311015e-01, -5.78190446e-01, 2.22420409e-01 ]
      - [ 2.40701652e+00, -2.53123403e-01, -5.57183862e-01 ]
      - [ -1.53314516e-01, 1.10515785e+00, 6.39278233e-01 ]
      - [ -8.29927504e-01, -2.02879071e+00, 9.04798031e-01 ]
      - [ 1.14449513e+00, 4.30419482e-02, 1.76568353e+00 ]
      - [ -6.17776811e-01, -2.63297528e-01, -1.28084290e+00 ]
      - [ -1.64920494e-01, 1.13610792e+00, 6.09111667e-01 ]
      - [ 5.90421915e-01, -1.14109206e+00, 1.93326199e+00 ]
      - [ -1.32633567e-01, 1.11717272e+00, 7.00288951e-01 ]
      - [ 1.13334870e+00, -1.00358474e+00, 2.24343061e+00 ]
      - [ 1.50410450e+00, -1.40523636e+00, 3.86699229e-01 ]
      - [ -1.02180585e-01, 1.12535167e+00, 7.27720678e-01 ]
      - [ -1.02180585e-01, 1.12535167e+00, 7.27720678e-01 ]
      - [ 1.89077809e-01, 5.35803139e-01, 2.86514461e-01 ]
      - [ 1.86503366e-01, 2.59931087e+00, 1.51194417e+00 ]
      - [ 5.57534695e-02, 9.47574615e-01, 7.53411472e-01 ]
      - [ -1.86435008e+00, -2.25668177e-01, -4.09442261e-02 ]
      - [ -1.58412230e+00, 8.01943779e-01, -9.34295952e-02 ]
      - [ -1.38110101e+00, -4.31026593e-02, -1.18813467e+00 ]
      - [ -1.91894162e+00, -9.89099264e-01, 1.51454747e-01 ]
      - [ -1.17874575e+00, 1.16093123e+00, 1.45512953e-01 ]
      - [ -1.12514210e+00, 8.40129137e-01, 1.82851166e-01 ]
      - [ 4.44817007e-01, 7.69511998e-01, 8.09027195e-01 ]
      - [ -1.06006789e+00, 6.68619514e-01, -9.90185793e-03 ]
      - [ -2.06092164e-01, 8.63902748e-01, 4.28402007e-01 ]
      - [ 1.86947381e+00, -4.88400221e-01, 2.07041264e+00 ]
      - [ -1.24868906e+00, 9.64647651e-01, -1.36618078e-01 ]
      - [ 1.80883133e+00, -2.90953398e-01, 1.93801892e+00 ]
      - [ 1.96447790e+00, -1.08179390e+00, 1.91340578e+00 ]
      - [ -3.99911821e-01, -1.07047975e+00, 1.20610750e+00 ]
      - [ 6.46023273e-01, 1.43729770e+00, 1.54720426e+00 ]
      - [ 3.87607455e-01, 7.49342740e-01, 7.45854735e-01 ]
      - [ -1.32633567e-01, 1.11717272e+00, 7.00288951e-01 ]
      - [ -6.70308948e-01, 1.17701888e+00, -1.02315746e-01 ]
      - [ -5.93101442e-01, 1.15959752e+00, -1.40889034e-01 ]
      - [ 1.39481640e+00, -8.63924563e-01, 2.31030440e+00 ]
      - [ -1.50556445e+00, -1.55950069e+00, 7.28329420e-01 ]
      - [ -2.03832775e-01, 8.73484015e-01, 4.56421912e-01 ]
      - [ -1.41380215e+00, 6.09582603e-01, -1.99385095e+00 ]
      - [ -1.42692518e+00, 9.75563765e-01, 4.17147912e-02 ]
      - [ -2.01316297e-01, 8.66897166e-01, 4.36076015e-01 ]
      - [ 2.23428801e-01, 1.99695075e+00, -2.65461516e+00 ]
      - [ 7.08597824e-02, 9.51209143e-02, 3.74470264e-01 ]
      - [ -1.42692518e+00, 9.75563765e-01, 4.17147912e-02 ]
      - [ -1.41948789e-01, 8.49477947e-01, 3.27266127e-01 ]
      - [ -2.16372818e-01, 8.77725184e-01, 4.50372368e-01 ]
      - [ -1.94439426e-01, -2.27649260e+00, 1.39608169e+00 ]
      - [ -1.58412230e+00, 8.01943779e-01, -9.34295952e-02 ]
      - [ -7.65440241e-02, 1.06941926e+00, 7.49709666e-01 ]
      - [ -1.13538831e-01, 5.18290922e-02, -2.06714177e+00 ]
      - [ -5.93159437e-01, 2.67098713e+00, 3.37232947e-01 ]
   decision_functions:
      -
         sv_count: 108
         rho: 1.1512458398494321e-01
         alpha: [ 4.9779594540909737e-02, 1., 1., 1., 1., 1.,
             8.4154183934688098e-01, 1., 1.0572859059535389e-01,
             2.6200406724802755e-02, 1., 1., 1., 6.8181019393131137e-01,
             1.2863041031246925e-01, 1., 2.7071371754833273e-01, 1.,
             1.8166520191267047e-01, 6.0961593069270992e-01,
             4.4239456440612673e-01, 3.6045681564933052e-01,
             2.7724997799344092e-01, 4.7272614970380100e-02,
             1.5217611635112671e-01, 3.4470098947367395e-01,
             8.6726052384044827e-01, 1., 1., 5.6842476226372374e-01,
             2.5950904676012415e-01, 2.1064373743076237e-01,
             5.0999389787238381e-01, 1., 1., 1., 1.,
             1.9357482673560786e-01, 1., 2.7263344649078886e-01,
             4.3227641136799277e-02, 3.5854059646185731e-02, 1., 1., 1.,
             1., 1.7684547437889445e-02, 2.0167183012457116e-01, 1.,
             9.8023439648607491e-01, 1., 4.0914770260534350e-01, 1.,
             2.9465941564789982e-01, 1., 1., -1.,
             -8.8101922159807655e-01, -5.6059655222362925e-01,
             -1.7724768895326345e-01, -1., -1., -4.2257818357656546e-01,
             -3.4453233424198915e-01, -1., -2.1720941698633736e-01,
             -1.2197427565525262e-01, -1., -2.6384747898806049e-01,
             -1.8230453074994321e-01, -1., -1., -1., -1., -1.,
             -6.7179313703995025e-01, -1.5541340253042557e-01,
             -6.9671756331695256e-01, -5.0592729972436468e-01,
             -8.3796199163172380e-01, -1., -7.5940768483324583e-01, -1.,
             -2.0594661792958815e-01, -1., -1., -1.9421103597915548e-01,
             -1.4359124752823343e-01, -1., -8.2720611897747071e-03, -1.,
             -2.0278587626106256e-01, -1., -4.9048446764120612e-01, -1.,
             -4.9707791813736919e-02, -3.7362869246081831e-01, -1.,
             -6.6118590894738005e-01, -1., -1., -1., -1.,
             -4.8603615998749516e-01, -1., -1., -1.,
             -7.7007617713989218e-01 ]
         index: [ 82, 47, 81, 80, 45, 46, 52, 49, 92, 39, 38, 35, 34, 93,
             36, 44, 43, 88, 85, 42, 84, 86, 73, 64, 76, 66, 67, 72, 79,
             55, 60, 61, 57, 78, 97, 23, 20, 2, 10, 101, 8, 103, 102, 17,
             4, 3, 16, 12, 14, 5, 94, 31, 29, 27, 28, 25, 69, 75, 104,
             77, 105, 70, 71, 106, 74, 107, 83, 96, 95, 87, 89, 90, 91,
             100, 99, 98, 30, 21, 24, 26, 22, 37, 33, 32, 6, 1, 0, 15,
             19, 18, 9, 7, 13, 11, 59, 58, 62, 56, 68, 63, 65, 40, 41,
             53, 54, 48, 50, 51 ]
...
---
mean: !!opencv-matrix
   rows: 1
   cols: 3
   dt: f
   data: [ 1.44202835e+02, 1.31385071e+02, 1.42886520e+02 ]
std: !!opencv-matrix
   rows: 1
   cols: 3
   dt: f
   data: [ 4.31571884e+01, 1.63018799e+01, 2.46696377e+01 ]
