%YAML:1.0
opencv_ml_svm:
   format: 3
   svmType: C_SVC
   kernel:
      type: RBF
      gamma: 1.
   C: 1.
   term_criteria: { epsilon:1.1920928955078125e-07, iterations:1000 }
   var_count: 3
   class_count: 2
   class_labels: !!opencv-matrix
      rows: 2
      cols: 1
      dt: i
      data: [ -1, 1 ]
   sv_total: 201
   support_vectors:
      - [ 2.78844684e-01, -4.97693479e-01, 8.94047171e-02 ]
      - [ 1.41586483e+00, -3.95496160e-01, -1.91206187e-01 ]
      - [ 1.40186660e-02, -7.28145599e-01, -7.41230473e-02 ]
      - [ 1.06800246e+00, -8.82285595e-01, 9.06783104e-01 ]
      - [ 1.09219670e+00, -8.93000841e-01, 9.32477415e-01 ]
      - [ 1.10511100e-02, -7.52842009e-01, -6.27381578e-02 ]
      - [ 1.16626608e+00, -4.30868089e-01, -2.50279307e-01 ]
      - [ 1.39995182e+00, -3.94662440e-01, -1.87161684e-01 ]
      - [ 1.41459179e+00, -3.99920076e-01, -1.91859215e-01 ]
      - [ 1.45428419e+00, -8.40670884e-01, 1.03217566e+00 ]
      - [ 1.37030959e+00, -4.00452286e-01, -1.80055901e-01 ]
      - [ 3.42164375e-02, -7.12701976e-01, -1.01855077e-01 ]
      - [ 1.19968355e+00, -4.88376111e-01, -3.09071243e-01 ]
      - [ 1.40934348e+00, -4.18039113e-01, -2.27548867e-01 ]
      - [ 1.49529421e+00, -4.11358625e-01, 9.46181193e-02 ]
      - [ 1.44463873e+00, -3.94013345e-01, -2.08562985e-01 ]
      - [ 1.45931590e+00, -3.87723953e-01, -2.10280910e-01 ]
      - [ 1.00555193e+00, -5.25143802e-01, -2.69099921e-01 ]
      - [ -4.11784261e-01, -2.99702853e-01, -1.01917577e+00 ]
      - [ 1.37030959e+00, -4.00452286e-01, -1.80055901e-01 ]
      - [ 1.49529421e+00, -4.11358625e-01, 9.46181193e-02 ]
      - [ 7.38883078e-01, -7.49638617e-01, 7.26417303e-01 ]
      - [ 1.43021762e+00, -3.88543576e-01, -2.03232214e-01 ]
      - [ -8.66781473e-01, 2.97311378e+00, 4.49847877e-01 ]
      - [ 1.07805002e+00, -8.88643980e-01, 9.25564289e-01 ]
      - [ 1.10805750e+00, -9.17889893e-01, 9.28358853e-01 ]
      - [ 1.07805002e+00, -8.88643980e-01, 9.25564289e-01 ]
      - [ 1.12666321e+00, -7.25832164e-01, 8.47006857e-01 ]
      - [ 1.14684463e+00, -6.96833014e-01, 7.75639355e-01 ]
      - [ 1.48443294e+00, -4.32674438e-01, 7.47926235e-02 ]
      - [ 2.32737318e-01, -4.90980178e-01, 9.59475562e-02 ]
      - [ 1.19922030e+00, -4.60386366e-01, -3.47310662e-01 ]
      - [ -4.07454073e-01, -5.61325133e-01, 2.35902574e-02 ]
      - [ 5.68409622e-01, -4.46046829e-01, 8.69453773e-02 ]
      - [ 1.05209017e+00, -8.92772138e-01, 9.20434296e-01 ]
      - [ 1.06053674e+00, -7.94947207e-01, 8.75823915e-01 ]
      - [ 9.22382057e-01, -5.30423939e-01, -2.05399856e-01 ]
      - [ -5.57664692e-01, -1.36581945e+00, 6.37704968e-01 ]
      - [ 1.72338814e-01, 1.60356498e+00, 1.69086945e+00 ]
      - [ 9.22382057e-01, -5.30423939e-01, -2.05399856e-01 ]
      - [ 9.00936842e-01, -3.86255622e-01, 5.73434718e-02 ]
      - [ 1.19472229e+00, -4.30161297e-01, -3.49555403e-01 ]
      - [ 1.07477152e+00, -4.44448173e-01, -3.26210767e-01 ]
      - [ 1.25227416e+00, -4.77957070e-01, -3.41524273e-01 ]
      - [ 1.01907992e+00, -8.93622041e-01, 9.03439999e-01 ]
      - [ 1.20809639e+00, -6.98468864e-01, 7.89381385e-01 ]
      - [ 1.14531648e+00, -4.48112518e-01, -3.39125991e-01 ]
      - [ 9.76520658e-01, -4.95544106e-01, -2.24986330e-01 ]
      - [ 1.18280721e+00, -3.97009104e-01, -3.37773532e-01 ]
      - [ 6.98958993e-01, -5.80613494e-01, -1.81874558e-01 ]
      - [ 1.10572779e+00, -4.52925950e-01, -3.46020013e-01 ]
      - [ 1.01907992e+00, -8.93622041e-01, 9.03439999e-01 ]
      - [ 2.47618575e-02, -7.76014745e-01, -4.09061611e-02 ]
      - [ -5.04546404e-01, 8.15228403e-01, -1.40043271e+00 ]
      - [ 1.21888149e+00, -3.78546536e-01, -3.19110841e-01 ]
      - [ 2.90249139e-01, -4.95346010e-01, -6.16095203e-04 ]
      - [ 1.57212949e+00, -4.05137479e-01, 4.56497557e-02 ]
      - [ -7.09218979e-01, -8.62179697e-01, -1.08011216e-01 ]
      - [ 4.14820939e-01, -2.50111318e+00, -1.06385899e+00 ]
      - [ 3.42164375e-02, -7.12701976e-01, -1.01855077e-01 ]
      - [ 1.09113944e+00, -4.58729893e-01, -3.36203456e-01 ]
      - [ 1.06800246e+00, -8.82285595e-01, 9.06783104e-01 ]
      - [ 3.76527190e-01, -4.37779397e-01, 8.03849101e-02 ]
      - [ 1.10090709e+00, -7.67818213e-01, 8.83291543e-01 ]
      - [ 1.45428419e+00, -8.40670884e-01, 1.03217566e+00 ]
      - [ 1.23093319e+00, -4.64790940e-01, -3.36608022e-01 ]
      - [ 9.99134958e-01, -7.98708320e-01, 8.11293185e-01 ]
      - [ 1.05500841e+00, -4.63296533e-01, -2.24638686e-01 ]
      - [ 1.07815373e+00, -4.75176007e-01, -2.89010465e-01 ]
      - [ 8.04885387e-01, -7.99759209e-01, 7.70246744e-01 ]
      - [ 1.21009362e+00, -4.82726991e-01, -3.44430953e-01 ]
      - [ -2.11195230e+00, -9.10014689e-01, -4.54235543e-03 ]
      - [ 1.21400034e+00, -5.27714431e-01, -3.78646314e-01 ]
      - [ 1.05209017e+00, -8.92772138e-01, 9.20434296e-01 ]
      - [ -3.53136286e-02, 4.95602310e-01, 8.65298569e-01 ]
      - [ 1.07101834e+00, -7.76828408e-01, 8.91876161e-01 ]
      - [ 1.06595719e+00, -8.84293139e-01, 9.07501280e-01 ]
      - [ 1.40186660e-02, -7.28145599e-01, -7.41230473e-02 ]
      - [ 1.05539358e+00, -7.11107314e-01, 8.22346270e-01 ]
      - [ 1.40682971e+00, -7.81861782e-01, 5.36284804e-01 ]
      - [ 3.43577154e-02, -4.79812264e-01, 1.04408041e-01 ]
      - [ 7.54131496e-01, -1.34972775e+00, 1.41336679e+00 ]
      - [ 1.40682971e+00, -7.81861782e-01, 5.36284804e-01 ]
      - [ 1.16626608e+00, -4.30868089e-01, -2.50279307e-01 ]
      - [ 1.09817851e+00, -7.75017023e-01, 8.12849343e-01 ]
      - [ 8.16108227e-01, -3.81240755e-01, 6.61928952e-02 ]
      - [ 1.46615303e+00, -3.99014175e-01, 9.03768390e-02 ]
      - [ 9.29381967e-01, -5.09587407e-01, -2.59599805e-01 ]
      - [ 1.21587694e+00, -5.02942204e-01, -3.46264154e-01 ]
      - [ 1.10395050e+00, -7.76817560e-01, 8.17804694e-01 ]
      - [ 1.27384353e+00, -7.00467348e-01, 7.35442400e-01 ]
      - [ 1.02309394e+00, -4.90628392e-01, -3.86009097e-01 ]
      - [ 1.40403938e+00, -3.89537752e-01, -1.93449035e-01 ]
      - [ 1.19899705e-01, -4.98070061e-01, 1.13370381e-01 ]
      - [ 1.06829631e+00, -4.62516457e-01, -3.48749250e-01 ]
      - [ 6.82302594e-01, -5.76600850e-01, -1.87774837e-01 ]
      - [ 1.15434229e+00, -5.08227587e-01, -3.88049871e-01 ]
      - [ -1.09359658e+00, -3.47652793e-01, -3.49903315e-01 ]
      - [ 1.07804561e+00, -9.04676080e-01, 9.23095465e-01 ]
      - [ -2.10834146e-01, 6.02793813e-01, 3.97827834e-01 ]
      - [ 1.53494406e+00, -4.96869892e-01, 3.36812943e-01 ]
      - [ -3.09966236e-01, 1.13581702e-01, 4.88040775e-01 ]
      - [ 1.07398629e+00, -8.95729423e-01, 9.38001573e-01 ]
      - [ 1.41459179e+00, -3.99920076e-01, -1.91859215e-01 ]
      - [ 1.43282437e+00, -3.90138417e-01, -2.02918351e-01 ]
      - [ 7.24829376e-01, -3.94725174e-01, 5.79122305e-02 ]
      - [ 9.85504866e-01, -7.95445800e-01, 8.60201478e-01 ]
      - [ -6.42485395e-02, 1.17774546e+00, 7.97650456e-01 ]
      - [ 1.03060400e+00, -8.84355903e-01, 9.13265407e-01 ]
      - [ 1.19523919e+00, -3.99053395e-01, -2.89718479e-01 ]
      - [ 1.05210316e+00, -4.42756355e-01, -3.27551544e-01 ]
      - [ 1.44463873e+00, -3.94013345e-01, -2.08562985e-01 ]
      - [ 1.03235459e+00, -8.58251333e-01, 8.84996057e-01 ]
      - [ 1.46615303e+00, -3.99014175e-01, 9.03768390e-02 ]
      - [ 1.17515540e+00, -3.01828682e-01, -1.12649524e+00 ]
      - [ 1.29291427e+00, -4.45560217e-01, -3.36671710e-01 ]
      - [ 1.19598222e+00, -4.39940035e-01, -3.10914665e-01 ]
      - [ 1.00555193e+00, -5.25143802e-01, -2.69099921e-01 ]
      - [ 6.98958993e-01, -5.80613494e-01, -1.81874558e-01 ]
      - [ 2.61640772e-02, -2.75593209e+00, 1.76945424e+00 ]
      - [ 1.33228910e+00, -3.73421490e-01, -2.87933677e-01 ]
      - [ 1.37498403e+00, -3.83724481e-01, -1.85217842e-01 ]
      - [ 1.43282437e+00, -3.90138417e-01, -2.02918351e-01 ]
      - [ 1.79727659e-01, -5.21825850e-01, 7.66495243e-02 ]
      - [ -1.55493391e+00, 6.84698224e-01, -1.94105613e+00 ]
      - [ 1.34996605e+00, -7.94075191e-01, 1.12224925e+00 ]
      - [ 1.43127167e+00, -8.23132634e-01, 1.05257952e+00 ]
      - [ 1.38189811e-02, -7.22585797e-01, -9.90085378e-02 ]
      - [ 9.32498753e-01, -7.01031327e-01, 8.02659035e-01 ]
      - [ 1.42235291e+00, -3.81594449e-01, -1.95815623e-01 ]
      - [ 1.48443294e+00, -4.32674438e-01, 7.47926235e-02 ]
      - [ 1.27330208e+00, -4.21274096e-01, -3.71060550e-01 ]
      - [ -7.07094669e-01, -8.01048815e-01, -1.30815342e-01 ]
      - [ 6.82302594e-01, -5.76600850e-01, -1.87774837e-01 ]
      - [ 1.05500841e+00, -4.63296533e-01, -2.24638686e-01 ]
      - [ 1.42312169e+00, -6.18682623e-01, 8.44415665e-01 ]
      - [ 5.34356087e-02, -7.15183735e-01, -9.15604308e-02 ]
      - [ 1.15805960e+00, -7.49902248e-01, 7.41001427e-01 ]
      - [ -1.23434746e+00, 1.93649507e+00, 2.71529108e-01 ]
      - [ 8.07888031e-01, -5.21306217e-01, -2.62955934e-01 ]
      - [ 3.42164375e-02, -7.12701976e-01, -1.01855077e-01 ]
      - [ 1.10511100e-02, -7.52842009e-01, -6.27381578e-02 ]
      - [ 1.10805750e+00, -9.17889893e-01, 9.28358853e-01 ]
      - [ 9.76520658e-01, -4.95544106e-01, -2.24986330e-01 ]
      - [ 1.14688933e+00, -3.74061465e-01, -3.12410444e-01 ]
      - [ -5.02210200e-01, 1.45097864e+00, -1.82965243e+00 ]
      - [ 1.41586483e+00, -3.95496160e-01, -1.91206187e-01 ]
      - [ 1.19863175e-01, -5.16943693e-01, 1.15729898e-01 ]
      - [ -3.88775587e-01, -2.23657465e+00, 1.32925403e+00 ]
      - [ 9.76520658e-01, -4.95544106e-01, -2.24986330e-01 ]
      - [ 1.37411785e+00, -3.05857688e-01, -3.96403462e-01 ]
      - [ 1.04596126e+00, -3.14522952e-01, -1.27456331e+00 ]
      - [ 7.05588043e-01, -5.92931569e-01, -1.72132626e-01 ]
      - [ 1.17958176e+00, -6.90649509e-01, 7.53481269e-01 ]
      - [ 1.09219670e+00, -8.93000841e-01, 9.32477415e-01 ]
      - [ 1.09664845e+00, -4.95238334e-01, -3.26972514e-01 ]
      - [ 2.47618575e-02, -7.76014745e-01, -4.09061611e-02 ]
      - [ 1.43147027e+00, -3.96580160e-01, -2.01061368e-01 ]
      - [ 9.22382057e-01, -5.30423939e-01, -2.05399856e-01 ]
      - [ 1.03060400e+00, -8.84355903e-01, 9.13265407e-01 ]
      - [ 1.59359593e-02, -2.71944451e+00, 1.82325339e+00 ]
      - [ 1.37100279e+00, -4.03068930e-01, -1.97602347e-01 ]
      - [ 8.23198736e-01, -4.06148940e-01, 6.49021342e-02 ]
      - [ 6.82302594e-01, -5.76600850e-01, -1.87774837e-01 ]
      - [ 1.21191657e+00, -6.76556528e-01, 7.72177696e-01 ]
      - [ 1.37100279e+00, -4.03068930e-01, -1.97602347e-01 ]
      - [ 1.16228688e+00, -4.40177560e-01, -3.40498149e-01 ]
      - [ -4.21142060e-04, -4.98780251e-01, 9.65967998e-02 ]
      - [ -2.12992966e-01, 2.89354420e+00, 1.65470445e+00 ]
      - [ 9.91258264e-01, -8.75417173e-01, 8.92335236e-01 ]
      - [ 1.20336771e+00, -5.34016490e-01, -3.98860782e-01 ]
      - [ 1.36817825e+00, -4.14044827e-01, -1.96154416e-01 ]
      - [ 1.05500841e+00, -4.63296533e-01, -2.24638686e-01 ]
      - [ 7.05588043e-01, -5.92931569e-01, -1.72132626e-01 ]
      - [ 1.11640012e+00, -3.46675336e-01, -1.18930352e+00 ]
      - [ 1.16626608e+00, -4.30868089e-01, -2.50279307e-01 ]
      - [ 1.42235291e+00, -3.81594449e-01, -1.95815623e-01 ]
      - [ 1.26773083e+00, -5.97775280e-01, -3.51992816e-01 ]
      - [ -1.10693777e+00, 1.70949113e+00, -2.15411663e+00 ]
      - [ 1.37498403e+00, -3.83724481e-01, -1.85217842e-01 ]
      - [ -7.09218979e-01, -8.62179697e-01, -1.08011216e-01 ]
      - [ 1.11489169e-01, -5.02502084e-01, 5.44263422e-02 ]
      - [ 9.29381967e-01, -5.09587407e-01, -2.59599805e-01 ]
      - [ 1.18918109e+00, -4.02071983e-01, -3.10288399e-01 ]
      - [ -1.52751219e+00, -3.98636647e-02, -1.11466372e+00 ]
      - [ 1.24451947e+00, -4.77939695e-01, -3.47753197e-01 ]
      - [ -3.12212080e-01, 2.27218676e+00, -2.64019299e+00 ]
      - [ -2.11564040e+00, -4.39110041e-01, -9.79888514e-02 ]
      - [ -3.99078071e-01, -4.75077257e-02, -1.99576163e+00 ]
      - [ -1.69775641e+00, 8.98243010e-01, 8.13367404e-03 ]
      - [ -6.48765042e-02, -5.27268827e-01, 1.20399289e-01 ]
      - [ -8.87424469e-01, -2.84307361e-01, -1.20975101e+00 ]
      - [ 1.07398629e+00, -8.95729423e-01, 9.38001573e-01 ]
      - [ 1.34024024e+00, -5.06995261e-01, 3.54460478e-01 ]
      - [ 3.82605135e-01, -4.73204166e-01, 1.10614233e-01 ]
      - [ 1.07815373e+00, -4.75176007e-01, -2.89010465e-01 ]
      - [ 1.14059412e+00, -6.74015045e-01, 7.64304638e-01 ]
      - [ -2.41848439e-01, 9.95338917e-01, 3.26677293e-01 ]
      - [ -6.05201386e-02, 4.66423899e-01, 9.11363959e-01 ]
      - [ -3.82779762e-02, -4.63740259e-01, -7.66578674e-01 ]
      - [ -1.82029024e-01, 2.22484946e+00, -2.61877704e+00 ]
   decision_functions:
      -
         sv_count: 201
         rho: 5.3485675186516468e-01
         alpha: [ 1., 1., 1., 1., 1., 1., 1., 1., 1., 1., 1., 1., 1.,
             4.8063350723342374e-01, 1., 1., 1., 1., 1., 1., 1., 1.,
             9.9618679865602255e-01, 1., 1., 7.2414559997072558e-01,
             3.8766609115443157e-01, 1., 1., 1., 1., 1., 1., 1., 1., 1.,
             1., 1., 1., 1., 1., 1., 3.5538842516363384e-01,
             5.0075121209954465e-01, 1., 1., 1., 1., 1., 1., 1., 1., 1.,
             1., 1., 1., 5.3277677313441441e-01, 1.,
             7.5359006637359727e-01, 1., 1., 8.4910539368583871e-01, 1.,
             1., 1., 1., 6.5308339488429301e-01, 1., 1.,
             3.0634789291486223e-03, 1., 1., 7.5110631622633073e-01, 1.,
             1., 1., 1., 1., 1., 1., 1., 1., 1., 1., 1., 1., 1., 1., 1.,
             1., 1., 1.6635087525355814e-02, 1., -8.8350679329697679e-01,
             -1., -1., -1.3014906750054461e-01, -1., -1.,
             -5.9226154672336398e-02, -1., -1., -1., -1.,
             -8.0951974738861371e-02, -3.4080054455855935e-02, -1., -1.,
             -7.5849173390630131e-01, -2.6275550911002265e-03, -1., -1.,
             -1., -9.6192306612865353e-01, -1., -1., -1.,
             -2.4885878265821879e-01, -1., -3.5843099139220419e-01,
             -1.2534086289558810e-01, -1.1794187166147846e-01,
             -4.8659279440009029e-01, -3.4233100874510092e-01, -1.,
             -2.1207355552563124e-02, -1., -1., -1., -1., -1., -1.,
             -2.1986465805456809e-01, -3.4051307982032653e-01, -1., -1.,
             -1., -1., -1., -1., -1., -2.9765514001302362e-01, -1., -1.,
             -1., -1., -3.5558300100720969e-01, -5.9101859977742886e-02,
             -1., -1., -1., -1., -1., -1., -1., -1.,
             -9.5453836564854866e-01, -9.3005311572066554e-02, -1., -1.,
             -1., -1., -1., -1., -1., -1., -3.6532284855055208e-01,
             -9.2462547725531163e-01, -1., -4.1942846441044995e-01, -1.,
             -4.1181898295392810e-01, -1., -1., -1.,
             -8.3252922627104164e-01, -1., -1., -7.5583550367321617e-02,
             -1., -1., -1., -1., -1., -4.5931503649637612e-01, -1., -1.,
             -2.7323718562898690e-02, -1., -2.7444293771446160e-01, -1.,
             -1., -1., -2.8182041926505941e-01, -1., -1., -1., -1., -1.,
             -1., -1. ]
         index: [ 170, 40, 42, 41, 74, 100, 46, 72, 48, 135, 43, 45, 88,
             132, 32, 33, 30, 177, 106, 144, 150, 75, 37, 105, 35, 62,
             160, 60, 63, 89, 57, 56, 55, 54, 91, 69, 90, 70, 155, 66,
             65, 164, 71, 97, 166, 96, 50, 167, 137, 153, 162, 93, 94,
             31, 12, 194, 193, 14, 119, 190, 81, 198, 123, 0, 199, 196,
             148, 125, 147, 85, 110, 86, 21, 112, 20, 130, 78, 181, 28,
             131, 29, 180, 109, 27, 128, 187, 115, 185, 116, 183, 84, 80,
             113, 142, 146, 143, 145, 129, 127, 124, 126, 136, 140, 141,
             138, 139, 134, 133, 184, 186, 182, 176, 175, 174, 172, 173,
             179, 178, 195, 200, 197, 188, 189, 191, 192, 152, 156, 154,
             159, 158, 157, 149, 151, 168, 169, 171, 161, 165, 163, 36,
             39, 38, 34, 52, 51, 59, 58, 53, 44, 49, 47, 11, 8, 7, 6, 10,
             9, 13, 3, 5, 4, 1, 2, 22, 26, 24, 23, 25, 17, 16, 15, 18,
             19, 104, 103, 107, 108, 92, 95, 101, 99, 102, 98, 121, 120,
             122, 111, 117, 118, 114, 73, 77, 76, 64, 67, 61, 68, 87, 79,
             82, 83 ]
...
---
mean: !!opencv-matrix
   rows: 1
   cols: 3
   dt: f
   data: [ 1.63213745e+02, 1.31267807e+02, 1.40386002e+02 ]
std: !!opencv-matrix
   rows: 1
   cols: 3
   dt: f
   data: [ 5.14662666e+01, 1.46847315e+01, 2.40524044e+01 ]
