%YAML:1.0
my_svm: !!opencv-ml-svm
   svm_type: C_SVC
   kernel: { type:RBF, gamma:10. }
   C: 100.
   term_criteria: { epsilon:1.1920928955078125e-07, iterations:1000 }
   var_all: 3
   var_count: 3
   class_count: 2
   class_labels: !!opencv-matrix
      rows: 1
      cols: 2
      dt: i
      data: [ -1, 1 ]
   sv_total: 8
   support_vectors:
      - [ 5.67238331e-01, 6.45462275e-01, 2.56739020e-01 ]
      - [ 8.57424378e-01, 8.86944532e-01, 8.50929022e-02 ]
      - [ 6.79554820e-01, 6.96701229e-01, 2.75277942e-01 ]
      - [ 7.65574217e-01, 7.26988316e-01, 9.21107680e-02 ]
      - [ 7.67818749e-01, 7.42541254e-01, 2.42647052e-01 ]
      - [ 8.79996121e-01, 8.28348517e-01, 9.33277011e-02 ]
      - [ 9.07786012e-01, 9.29674685e-01, 6.59652203e-02 ]
      - [ 7.07648039e-01, 7.28723407e-01, 2.52511173e-01 ]
   decision_functions:
      -
         sv_count: 8
         rho: 2.8792965152832212e-01
         alpha: [ 2.1018813241124157e+00, 9.2855392957979021e+01,
             5.2011557572352395e+01, 5.8016506649104640e+00,
             4.5297431537392434e+01, -5.6348908558473816e+01,
             -4.1719005498272878e+01, -100. ]
         index: [ 0, 1, 2, 3, 4, 5, 6, 7 ]
